<?xml version="1.0"?>
<opencv_storage>
<cascade>
  <stageType>BOOST</stageType>
  <featureType>LBP</featureType>
  <height>60</height>
  <width>30</width>
  <stageParams>
    <boostType>GAB</boostType>
    <minHitRate>9.9500000476837158e-01</minHitRate>
    <maxFalseAlarm>5.0000000000000000e-01</maxFalseAlarm>
    <weightTrimRate>9.4999999999999996e-01</weightTrimRate>
    <maxDepth>1</maxDepth>
    <maxWeakCount>100</maxWeakCount></stageParams>
  <featureParams>
    <maxCatCount>256</maxCatCount>
    <featSize>1</featSize></featureParams>
  <stageNum>20</stageNum>
  <stages>
    <!-- stage 0 -->
    <_>
      <maxWeakCount>2</maxWeakCount>
      <stageThreshold>-3.1764489412307739e-01</stageThreshold>
      <weakClassifiers>
        <_>
          <internalNodes>
            0 -1 24 -1 -1025 -539492353 -1208229929 -52429057 -788940641
            -390332417 1406711</internalNodes>
          <leafValues>
            -9.3746513128280640e-01 7.8906780481338501e-01</leafValues></_>
        <_>
          <internalNodes>
            0 -1 44 -35651585 -42533385 -103751695 -50988555 -6815747
            -572471125 -50729481 -1057698379</internalNodes>
          <leafValues>
            -7.9789537191390991e-01 6.1982023715972900e-01</leafValues></_></weakClassifiers></_>
    <!-- stage 1 -->
    <_>
      <maxWeakCount>4</maxWeakCount>
      <stageThreshold>-2.3372191190719604e-01</stageThreshold>
      <weakClassifiers>
        <_>
          <internalNodes>
            0 -1 21 1061138399 -5382209 -1 -50987009 -1 -168690181
            -55197697 -185219595</internalNodes>
          <leafValues>
            -6.6801619529724121e-01 7.3863637447357178e-01</leafValues></_>
        <_>
          <internalNodes>
            0 -1 31 -8912897 -9438337 -4993038 2138497022 -83886251
            1870135157 -185139340 -1250557963</internalNodes>
          <leafValues>
            -6.9920742511749268e-01 5.9039527177810669e-01</leafValues></_>
        <_>
          <internalNodes>
            0 -1 133 -17 -2004157649 -554700862 -2136802069 -1
            -1359216645 -67119147 -1527775241</internalNodes>
          <leafValues>
            -6.7271184921264648e-01 5.5146169662475586e-01</leafValues></_>
        <_>
          <internalNodes>
            0 -1 113 250445823 780038525 -410520747 1858923517
            -1849442828 -353653988 -1481771548 -1531642412</internalNodes>
          <leafValues>
            -6.5095019340515137e-01 5.8203995227813721e-01</leafValues></_></weakClassifiers></_>
    <!-- stage 2 -->
    <_>
      <maxWeakCount>5</maxWeakCount>
      <stageThreshold>-8.1747847795486450e-01</stageThreshold>
      <weakClassifiers>
        <_>
          <internalNodes>
            0 -1 20 -33686049 -1 -34209843 -40501251 -33554433 -33947649
            -235539212 -772407841</internalNodes>
          <leafValues>
            -5.4192620515823364e-01 7.1261852979660034e-01</leafValues></_>
        <_>
          <internalNodes>
            0 -1 9 -2097169 -1435573394 -419518206 1646985154 -2360507
            2138284371 -1277 -8913961</internalNodes>
          <leafValues>
            -6.3044667243957520e-01 5.1959574222564697e-01</leafValues></_>
        <_>
          <internalNodes>
            0 -1 94 -1073742985 -135266433 -228589916 -764477746
            -144736436 1967652729 -235407548 2013265903</internalNodes>
          <leafValues>
            -5.7919913530349731e-01 4.9964573979377747e-01</leafValues></_>
        <_>
          <internalNodes>
            0 -1 141 -406323218 -1360794137 -257116574 -990457369
            -1490649529 193319847 1756821703 -33626641</internalNodes>
          <leafValues>
            -5.8055937290191650e-01 5.2619993686676025e-01</leafValues></_>
        <_>
          <internalNodes>
            0 -1 16 -649 -33334498 1001192422 -51478544 -72091834
            -293658753 -1075988140 -9052332</internalNodes>
          <leafValues>
            -6.7095124721527100e-01 4.1552749276161194e-01</leafValues></_></weakClassifiers></_>
    <!-- stage 3 -->
    <_>
      <maxWeakCount>5</maxWeakCount>
      <stageThreshold>-7.4016547203063965e-01</stageThreshold>
      <weakClassifiers>
        <_>
          <internalNodes>
            0 -1 10 -1692977641 -541128425 -1034351587 -123763931
            226972575 -170537561 -1196450625 1962397175</internalNodes>
          <leafValues>
            -7.0642203092575073e-01 5.5682748556137085e-01</leafValues></_>
        <_>
          <internalNodes>
            0 -1 71 -687882305 -672154305 -105185600 -218444433
            -1544815804 1734565199 -805323516 -134217793</internalNodes>
          <leafValues>
            -5.1015520095825195e-01 5.6785959005355835e-01</leafValues></_>
        <_>
          <internalNodes>
            0 -1 120 -822169874 419021788 -2030378017 721204700
            1795074919 -855781508 -537084947 -2001166900</internalNodes>
          <leafValues>
            -7.6031392812728882e-01 3.4986361861228943e-01</leafValues></_>
        <_>
          <internalNodes>
            0 -1 138 -12583449 -273711122 -16783638 -287572241
            -134219953 1190133759 -167775881 -134217793</internalNodes>
          <leafValues>
            -5.0269323587417603e-01 5.3527837991714478e-01</leafValues></_>
        <_>
          <internalNodes>
            0 -1 35 -473956353 -805323153 1862007339 581791671
            -572033202 2139094911 -151259537 -31777</internalNodes>
          <leafValues>
            -4.0873026847839355e-01 6.2156665325164795e-01</leafValues></_></weakClassifiers></_>
    <!-- stage 4 -->
    <_>
      <maxWeakCount>6</maxWeakCount>
      <stageThreshold>-1.1867651939392090e+00</stageThreshold>
      <weakClassifiers>
        <_>
          <internalNodes>
            0 -1 101 -1 -1109590067 -570622740 1023737838 -570556948
            1548547276 1568480428 2103394235</internalNodes>
          <leafValues>
            -3.8698327541351318e-01 6.8262863159179688e-01</leafValues></_>
        <_>
          <internalNodes>
            0 -1 56 -1056763119 -150665919 -783219435 -1080436347
            -2063449205 -1442113367 1493957067 134873055</internalNodes>
          <leafValues>
            -6.5748053789138794e-01 4.1582408547401428e-01</leafValues></_>
        <_>
          <internalNodes>
            0 -1 84 -674258033 -135307394 2105537500 288382972 -34603060
            1204623180 -411568132 2004615167</internalNodes>
          <leafValues>
            -4.9713981151580811e-01 5.2357095479965210e-01</leafValues></_>
        <_>
          <internalNodes>
            0 -1 134 -202156466 -145805106 570897556 -73674530
            -800597938 67826219 1435169147 1608497663</internalNodes>
          <leafValues>
            -5.1006841659545898e-01 4.7424465417861938e-01</leafValues></_>
        <_>
          <internalNodes>
            0 -1 127 -134745737 -1924999902 -503147362 1565848070
            -715485063 135037081 188684360 -806146182</internalNodes>
          <leafValues>
            -5.0347244739532471e-01 4.7073942422866821e-01</leafValues></_>
        <_>
          <internalNodes>
            0 -1 81 -559755022 1074452488 1224803679 17518641
            -1743061874 447381896 -1870544758 999283595</internalNodes>
          <leafValues>
            -6.8923842906951904e-01 3.3879709243774414e-01</leafValues></_></weakClassifiers></_>
    <!-- stage 5 -->
    <_>
      <maxWeakCount>6</maxWeakCount>
      <stageThreshold>-1.2586425542831421e+00</stageThreshold>
      <weakClassifiers>
        <_>
          <internalNodes>
            0 -1 19 -51057564 -655361 -170590252 -41549835 -33685537
            -720929 -170592827 -715784961</internalNodes>
          <leafValues>
            -5.0319212675094604e-01 5.9571141004562378e-01</leafValues></_>
        <_>
          <internalNodes>
            0 -1 63 -949004321 -1623846449 1096876964 928058151
            -1953552132 352602261 -2004178728 253987550</internalNodes>
          <leafValues>
            -4.9459090828895569e-01 5.0099974870681763e-01</leafValues></_>
        <_>
          <internalNodes>
            0 -1 107 2010593023 -269813334 303403538 1905058446
            2039742213 1091852320 277676572 1941697467</internalNodes>
          <leafValues>
            -5.2447736263275146e-01 4.3123045563697815e-01</leafValues></_>
        <_>
          <internalNodes>
            0 -1 4 -1589976594 -297369002 559628506 1935639026
            -1999926076 1533518084 -1908696833 2139084263</internalNodes>
          <leafValues>
            -5.8851206302642822e-01 3.7419128417968750e-01</leafValues></_>
        <_>
          <internalNodes>
            0 -1 58 487594427 -1324142416 1459737559 486867278
            -1316301876 118077935 864740585 532631987</internalNodes>
          <leafValues>
            -5.6873929500579834e-01 3.9065048098564148e-01</leafValues></_>
        <_>
          <internalNodes>
            0 -1 61 1944821694 -5301842 377917840 334527945 -626336802
            1124630536 -1861260872 1930559454</internalNodes>
          <leafValues>
            -6.4073771238327026e-01 3.2096704840660095e-01</leafValues></_></weakClassifiers></_>
    <!-- stage 6 -->
    <_>
      <maxWeakCount>8</maxWeakCount>
      <stageThreshold>-6.3331550359725952e-01</stageThreshold>
      <weakClassifiers>
        <_>
          <internalNodes>
            0 -1 102 -67141641 1361505381 2147405566 552792046
            1979144020 1433886588 939476176 2143188991</internalNodes>
          <leafValues>
            -4.4225353002548218e-01 5.8418077230453491e-01</leafValues></_>
        <_>
          <internalNodes>
            0 -1 29 -235962507 -547261104 -821865475 2134200752
            -52438027 -1083746206 -513676603 -1087276428</internalNodes>
          <leafValues>
            -5.8706551790237427e-01 4.0866243839263916e-01</leafValues></_>
        <_>
          <internalNodes>
            0 -1 114 -1983033123 -524026977 -400748034 -19595270
            966328815 -74754629 2074012668 -1807429156</internalNodes>
          <leafValues>
            -5.8615690469741821e-01 3.6962389945983887e-01</leafValues></_>
        <_>
          <internalNodes>
            0 -1 76 -129970053 -749857371 406851101 1910349268
            -130243684 1584197280 -74720265 100258295</internalNodes>
          <leafValues>
            -6.6468238830566406e-01 3.2223737239837646e-01</leafValues></_>
        <_>
          <internalNodes>
            0 -1 42 -1721786945 -515106313 -472709665 571391823
            1965909311 93166283 1433104735 1212438470</internalNodes>
          <leafValues>
            -6.4824271202087402e-01 2.8705778717994690e-01</leafValues></_>
        <_>
          <internalNodes>
            0 -1 118 -545259569 -1181156065 -269525250 -114135622
            -1913889635 1558543477 1333204380 -270047249</internalNodes>
          <leafValues>
            -4.4089984893798828e-01 4.8470413684844971e-01</leafValues></_>
        <_>
          <internalNodes>
            0 -1 0 433302954 -2117504562 -1626258222 -11299421
            -276056645 -822031135 -1069445381 -346821381</internalNodes>
          <leafValues>
            -4.8429468274116516e-01 4.3075731396675110e-01</leafValues></_>
        <_>
          <internalNodes>
            0 -1 22 -648161793 -807151147 1438986551 575271007 -8181701
            -1509701629 2003673134 1427004695</internalNodes>
          <leafValues>
            -5.3611677885055542e-01 4.0359482169151306e-01</leafValues></_></weakClassifiers></_>
    <!-- stage 7 -->
    <_>
      <maxWeakCount>7</maxWeakCount>
      <stageThreshold>-1.3945250511169434e+00</stageThreshold>
      <weakClassifiers>
        <_>
          <internalNodes>
            0 -1 64 -129 1685553021 -71630851 573603709 -50897644
            1299677053 -327780 966328316</internalNodes>
          <leafValues>
            -4.4289043545722961e-01 5.7091879844665527e-01</leafValues></_>
        <_>
          <internalNodes>
            0 -1 39 -4228097 -280004609 -250094625 596637951 -81167553
            -228599605 1929864575 2002121331</internalNodes>
          <leafValues>
            -4.6736595034599304e-01 4.7495517134666443e-01</leafValues></_>
        <_>
          <internalNodes>
            0 -1 46 -1435530817 -12429314 5182360 326210525 2061495104
            1784640006 -441778440 2071652863</internalNodes>
          <leafValues>
            -4.5616897940635681e-01 4.2780607938766479e-01</leafValues></_>
        <_>
          <internalNodes>
            0 -1 125 2146435071 -1114114 1558113518 2104638650
            2147474943 67169390 1559665880 2138831871</internalNodes>
          <leafValues>
            -3.9830690622329712e-01 4.8931136727333069e-01</leafValues></_>
        <_>
          <internalNodes>
            0 -1 68 2072048063 -1181028390 9549279 158581185 -1111884812
            983292637 297812184 1002374353</internalNodes>
          <leafValues>
            -6.1795693635940552e-01 3.2852566242218018e-01</leafValues></_>
        <_>
          <internalNodes>
            0 -1 27 1409252287 -806887539 -607972837 -434573189
            1232423543 -43790200 2067099729 1870133073</internalNodes>
          <leafValues>
            -5.3523010015487671e-01 3.5126665234565735e-01</leafValues></_>
        <_>
          <internalNodes>
            0 -1 121 -285438721 528228095 -805371905 897482751
            -1073750017 -1493172227 -1342308355 -1733625092</internalNodes>
          <leafValues>
            -4.3689757585525513e-01 4.5775771141052246e-01</leafValues></_></weakClassifiers></_>
    <!-- stage 8 -->
    <_>
      <maxWeakCount>8</maxWeakCount>
      <stageThreshold>-1.2472134828567505e+00</stageThreshold>
      <weakClassifiers>
        <_>
          <internalNodes>
            0 -1 140 -274 -353370130 -16843102 -286263316 -136843708
            122681325 1426060404 1591735807</internalNodes>
          <leafValues>
            -5.0974231958389282e-01 5.6650030612945557e-01</leafValues></_>
        <_>
          <internalNodes>
            0 -1 93 -2104641 -35137045 -2138317838 -1303446530
            -1009779896 1359839555 1945073604 -138412081</internalNodes>
          <leafValues>
            -4.4355320930480957e-01 5.0813972949981689e-01</leafValues></_>
        <_>
          <internalNodes>
            0 -1 38 -42599585 -1882343585 -1760436353 795065814
            -67415233 -1886392144 355410255 1565845791</internalNodes>
          <leafValues>
            -5.2663516998291016e-01 3.8911125063896179e-01</leafValues></_>
        <_>
          <internalNodes>
            0 -1 17 -987496449 -1067875839 1299909 1426524697 -82491836
            -2071965501 1715554318 1465074203</internalNodes>
          <leafValues>
            -5.6318908929824829e-01 3.7865343689918518e-01</leafValues></_>
        <_>
          <internalNodes>
            0 -1 146 -10485785 -487648377 -49822558 -366274678
            -473222149 934674745 -108201181 -1246764077</internalNodes>
          <leafValues>
            -5.2741193771362305e-01 4.0194568037986755e-01</leafValues></_>
        <_>
          <internalNodes>
            0 -1 15 -1275627585 -908078241 -781642887 705793247
            -50103413 1393279210 1200322431 1199025095</internalNodes>
          <leafValues>
            -5.1898342370986938e-01 3.6814516782760620e-01</leafValues></_>
        <_>
          <internalNodes>
            0 -1 148 655325099 -309934840 -2142832572 1883951427
            -2136617404 1621733387 -1875838778 -733020393</internalNodes>
          <leafValues>
            -5.3674066066741943e-01 3.6788398027420044e-01</leafValues></_>
        <_>
          <internalNodes>
            0 -1 36 -2121299025 -269582866 1917112320 -761670216
            -1651512504 2101776971 -354425218 -939531313</internalNodes>
          <leafValues>
            -5.0007534027099609e-01 4.0154868364334106e-01</leafValues></_></weakClassifiers></_>
    <!-- stage 9 -->
    <_>
      <maxWeakCount>9</maxWeakCount>
      <stageThreshold>-9.1103869676589966e-01</stageThreshold>
      <weakClassifiers>
        <_>
          <internalNodes>
            0 -1 3 -2080379922 -881917970 -76811550 1935932655 -35717308
            1867513676 -204283953 1736179183</internalNodes>
          <leafValues>
            -3.9954596757888794e-01 5.6421810388565063e-01</leafValues></_>
        <_>
          <internalNodes>
            0 -1 124 -147893513 -269550866 1929312510 1894709186
            -201328033 88932183 1996420340 -134235169</internalNodes>
          <leafValues>
            -3.8404533267021179e-01 5.2438306808471680e-01</leafValues></_>
        <_>
          <internalNodes>
            0 -1 74 -612393857 2136048140 411110612 463475792 1542322876
            1500546260 1504762088 2146774947</internalNodes>
          <leafValues>
            -5.8020550012588501e-01 3.3056601881980896e-01</leafValues></_>
        <_>
          <internalNodes>
            0 -1 142 -684722241 -424673909 -758254528 -1073198328
            -985605665 -1527455375 -452600889 -714630155</internalNodes>
          <leafValues>
            -4.8908725380897522e-01 3.9220389723777771e-01</leafValues></_>
        <_>
          <internalNodes>
            0 -1 51 -201656321 -446836129 843571615 81056121 -575280337
            -746282853 856396663 1479373331</internalNodes>
          <leafValues>
            -5.2706503868103027e-01 3.8155624270439148e-01</leafValues></_>
        <_>
          <internalNodes>
            0 -1 18 -540552977 -1811316557 1413860559 314680379
            1360069664 -645160769 -297516977 -92845329</internalNodes>
          <leafValues>
            -4.7761660814285278e-01 4.0256080031394958e-01</leafValues></_>
        <_>
          <internalNodes>
            0 -1 109 -136350209 364082525 2013003722 975241194
            -721457804 358967166 2113815748 -294913</internalNodes>
          <leafValues>
            -4.1353157162666321e-01 4.5265319943428040e-01</leafValues></_>
        <_>
          <internalNodes>
            0 -1 77 -168306508 549106866 -1592929015 204014235
            -1828151048 -1140798776 -249966165 1002432503</internalNodes>
          <leafValues>
            -5.7326900959014893e-01 3.3254680037498474e-01</leafValues></_>
        <_>
          <internalNodes>
            0 -1 136 -673218580 -287313344 1413648802 -556076932
            285989706 210473243 1102995511 1599860957</internalNodes>
          <leafValues>
            -6.5808981657028198e-01 2.7098211646080017e-01</leafValues></_></weakClassifiers></_>
    <!-- stage 10 -->
    <_>
      <maxWeakCount>9</maxWeakCount>
      <stageThreshold>-7.2688591480255127e-01</stageThreshold>
      <weakClassifiers>
        <_>
          <internalNodes>
            0 -1 85 2080374751 1701019479 2129854206 573767679
            1977570900 629104469 -268763564 989789950</internalNodes>
          <leafValues>
            -3.4015345573425293e-01 5.8068317174911499e-01</leafValues></_>
        <_>
          <internalNodes>
            0 -1 83 289083582 -1157418878 -937369582 -50130414
            -1323062850 -595550208 -1743210310 -587220837</internalNodes>
          <leafValues>
            -5.1898133754730225e-01 3.9424145221710205e-01</leafValues></_>
        <_>
          <internalNodes>
            0 -1 32 -1744864257 -1881394214 1473746399 797825983
            -1413842177 1130539178 922834551 2002046549</internalNodes>
          <leafValues>
            -5.5270016193389893e-01 3.2858771085739136e-01</leafValues></_>
        <_>
          <internalNodes>
            0 -1 100 -1314451197 1393410951 273226210 1913565836
            -1245081826 1430907199 -436504636 1945092031</internalNodes>
          <leafValues>
            -5.8052158355712891e-01 3.2909581065177917e-01</leafValues></_>
        <_>
          <internalNodes>
            0 -1 105 -1621915859 -1344432484 -2121584559 -1069058
            721537845 -119561994 -1195770952 -486663628</internalNodes>
          <leafValues>
            -4.7267025709152222e-01 3.9053463935852051e-01</leafValues></_>
        <_>
          <internalNodes>
            0 -1 117 -8388641 -577306660 148893406 -581730826 -33558531
            335600844 1173937384 -277087237</internalNodes>
          <leafValues>
            -3.9957287907600403e-01 4.8092499375343323e-01</leafValues></_>
        <_>
          <internalNodes>
            0 -1 12 -999309065 490569727 -25776397 -1411383553
            1565605900 1509348855 -462756609 -5251333</internalNodes>
          <leafValues>
            -3.6396503448486328e-01 5.5449718236923218e-01</leafValues></_>
        <_>
          <internalNodes>
            0 -1 48 1496364031 -350334509 -1546398439 72624573
            -177736833 -331240474 1970496111 1465663722</internalNodes>
          <leafValues>
            -5.4360318183898926e-01 3.3617642521858215e-01</leafValues></_>
        <_>
          <internalNodes>
            0 -1 89 390861516 -253818630 1929565856 -622885654
            -1486753080 -1147574528 -1184312148 -1267403906</internalNodes>
          <leafValues>
            -4.7704309225082397e-01 3.8383528590202332e-01</leafValues></_></weakClassifiers></_>
    <!-- stage 11 -->
    <_>
      <maxWeakCount>8</maxWeakCount>
      <stageThreshold>-5.6246846914291382e-01</stageThreshold>
      <weakClassifiers>
        <_>
          <internalNodes>
            0 -1 30 -32769 2137423742 -83951648 1937014640 -2219
            -143163522 -655499 -1080688683</internalNodes>
          <leafValues>
            -3.9469027519226074e-01 5.4805773496627808e-01</leafValues></_>
        <_>
          <internalNodes>
            0 -1 144 -695730197 -825755218 -798796638 -366685400
            -276824081 -982140451 -423626809 -721421361</internalNodes>
          <leafValues>
            -4.1826781630516052e-01 4.1922417283058167e-01</leafValues></_>
        <_>
          <internalNodes>
            0 -1 59 -1121058900 -13041134 -2063062260 2108498704
            151037742 -1181964032 -1406354914 -575804498</internalNodes>
          <leafValues>
            -5.5404692888259888e-01 3.1374067068099976e-01</leafValues></_>
        <_>
          <internalNodes>
            0 -1 72 405926747 1509740827 1921243391 945632207 -217846997
            -29898279 2002776847 1282919423</internalNodes>
          <leafValues>
            -4.5921736955642700e-01 3.8523849844932556e-01</leafValues></_>
        <_>
          <internalNodes>
            0 -1 111 1596440927 833652653 1633028922 222042136
            1421345276 1490837741 1479950524 -2080400645</internalNodes>
          <leafValues>
            -4.8993897438049316e-01 3.5066670179367065e-01</leafValues></_>
        <_>
          <internalNodes>
            0 -1 115 -1902974470 -2048029820 -233514338 -1073773122
            -1040012317 -1215380806 -16846992 766435504</internalNodes>
          <leafValues>
            -6.1568665504455566e-01 2.5784710049629211e-01</leafValues></_>
        <_>
          <internalNodes>
            0 -1 26 -578852357 -384849419 1396947215 576950836 587607837
            1484759074 2002331991 1191575313</internalNodes>
          <leafValues>
            -6.1332863569259644e-01 2.9316616058349609e-01</leafValues></_>
        <_>
          <internalNodes>
            0 -1 91 -1970305357 -140545909 449155856 1917225795
            1941626631 1432551471 1288159558 -697643617</internalNodes>
          <leafValues>
            -4.0916472673416138e-01 4.2985910177230835e-01</leafValues></_></weakClassifiers></_>
    <!-- stage 12 -->
    <_>
      <maxWeakCount>8</maxWeakCount>
      <stageThreshold>-1.0213401317596436e+00</stageThreshold>
      <weakClassifiers>
        <_>
          <internalNodes>
            0 -1 45 1502151996 -1886452708 -1979704056 -35316475
            -1962308694 -1180431992 -1380708440 -302732828</internalNodes>
          <leafValues>
            -6.2864279747009277e-01 5.1110219955444336e-01</leafValues></_>
        <_>
          <internalNodes>
            0 -1 82 -553004848 -1811742720 1904303575 1427968341
            -1173698050 -1147428646 2055676858 197083339</internalNodes>
          <leafValues>
            -4.4681397080421448e-01 4.0462562441825867e-01</leafValues></_>
        <_>
          <internalNodes>
            0 -1 106 1894440112 788527907 -134217870 1005712381
            1326369802 1875705634 -134283348 -1280079830</internalNodes>
          <leafValues>
            -3.6608952283859253e-01 4.8741409182548523e-01</leafValues></_>
        <_>
          <internalNodes>
            0 -1 5 30388443 -1954401526 268562432 1550588416 -1832024886
            -931017976 -1974799158 -855122106</internalNodes>
          <leafValues>
            -4.4934725761413574e-01 4.1159689426422119e-01</leafValues></_>
        <_>
          <internalNodes>
            0 -1 130 1565723666 -78958410 138449473 -573652458
            -763209522 -861764990 1350818015 1576974587</internalNodes>
          <leafValues>
            -5.1833724975585938e-01 3.4284874796867371e-01</leafValues></_>
        <_>
          <internalNodes>
            0 -1 87 290636160 -1793982310 -2122280292 2131921360
            -1946154848 -234224120 -1054299236 -1293752294</internalNodes>
          <leafValues>
            -4.7998550534248352e-01 3.8321948051452637e-01</leafValues></_>
        <_>
          <internalNodes>
            0 -1 47 1464857055 122131202 -1855643427 1058087539
            427825711 -586514426 1367585275 1343285343</internalNodes>
          <leafValues>
            -4.8018541932106018e-01 3.7140354514122009e-01</leafValues></_>
        <_>
          <internalNodes>
            0 -1 119 1528296223 -1619512656 1073763486 -813598206
            1495989246 1283457208 681757138 -1377602890</internalNodes>
          <leafValues>
            -4.9677601456642151e-01 3.4914946556091309e-01</leafValues></_></weakClassifiers></_>
    <!-- stage 13 -->
    <_>
      <maxWeakCount>9</maxWeakCount>
      <stageThreshold>-9.1452527046203613e-01</stageThreshold>
      <weakClassifiers>
        <_>
          <internalNodes>
            0 -1 13 419496771 17498113 -1543402731 -1396331215 185206987
            -1920891005 -1710888049 83207297</internalNodes>
          <leafValues>
            -6.9196921586990356e-01 4.5908147096633911e-01</leafValues></_>
        <_>
          <internalNodes>
            0 -1 66 282263999 2012479700 1049042 956367123 1912854712
            1881145344 -2002741076 -1086617026</internalNodes>
          <leafValues>
            -4.5583069324493408e-01 3.9919561147689819e-01</leafValues></_>
        <_>
          <internalNodes>
            0 -1 90 -1677152104 -1157626880 402657753 489883648
            -1931698024 -1414293368 268853467 534745215</internalNodes>
          <leafValues>
            -5.1114296913146973e-01 3.8983619213104248e-01</leafValues></_>
        <_>
          <internalNodes>
            0 -1 126 -249564857 489730112 1107499024 -580746718
            1627593000 673202560 175310924 1864841866</internalNodes>
          <leafValues>
            -5.5547308921813965e-01 3.0791413784027100e-01</leafValues></_>
        <_>
          <internalNodes>
            0 -1 147 -785779518 -6030164 1820098130 -641075735
            -1121958770 -556851586 -871568174 -74448929</internalNodes>
          <leafValues>
            -3.4163767099380493e-01 5.2436202764511108e-01</leafValues></_>
        <_>
          <internalNodes>
            0 -1 34 1347766476 1537233098 -1969468894 8954327 1108885514
            -30527480 1666196474 -143252442</internalNodes>
          <leafValues>
            -5.3481125831604004e-01 3.1808039546012878e-01</leafValues></_>
        <_>
          <internalNodes>
            0 -1 23 386748923 -1550131012 944837085 656453632 1615343807
            -771649394 1111560447 1464195143</internalNodes>
          <leafValues>
            -5.0032210350036621e-01 3.5089972615242004e-01</leafValues></_>
        <_>
          <internalNodes>
            0 -1 98 -1021640792 -572531207 -1082792280 -1610662147
            -335665120 -44597388 1182721262 -1423708610</internalNodes>
          <leafValues>
            -3.9248847961425781e-01 4.3715065717697144e-01</leafValues></_>
        <_>
          <internalNodes>
            0 -1 69 -537669505 -804716512 738147259 361518941 -390861921
            -1707163766 1803517947 -1080034610</internalNodes>
          <leafValues>
            -3.3273676037788391e-01 5.4020649194717407e-01</leafValues></_></weakClassifiers></_>
    <!-- stage 14 -->
    <_>
      <maxWeakCount>9</maxWeakCount>
      <stageThreshold>-1.2388784885406494e+00</stageThreshold>
      <weakClassifiers>
        <_>
          <internalNodes>
            0 -1 122 -2078233416 18933840 -319029253 -1648509840
            -1796276225 -1744830977 1476358520 211751389</internalNodes>
          <leafValues>
            -4.5755070447921753e-01 4.9476277828216553e-01</leafValues></_>
        <_>
          <internalNodes>
            0 -1 60 -696618113 1461549927 -1868857227 1047598013
            1108044552 -646250457 -39155012 993583871</internalNodes>
          <leafValues>
            -4.7640651464462280e-01 3.6842769384384155e-01</leafValues></_>
        <_>
          <internalNodes>
            0 -1 2 -1883250790 -1212448512 -1090552064 -571658240
            -1048852 1979154335 -4658 -11705</internalNodes>
          <leafValues>
            -3.4283772110939026e-01 4.9415415525436401e-01</leafValues></_>
        <_>
          <internalNodes>
            0 -1 114 -1913826852 -1578180085 -65 -926222 -50561826
            -3178497 2113929196 -1222705958</internalNodes>
          <leafValues>
            -3.9407432079315186e-01 4.2452076077461243e-01</leafValues></_>
        <_>
          <internalNodes>
            0 -1 135 2002746582 -128023898 604167294 492208276
            -837820018 1210098314 1146025438 1610517679</internalNodes>
          <leafValues>
            -5.3693836927413940e-01 3.1433171033859253e-01</leafValues></_>
        <_>
          <internalNodes>
            0 -1 65 160470013 289444181 8519912 487850837 -1866161264
            -1147658203 -1467168004 -1414795282</internalNodes>
          <leafValues>
            -4.4098028540611267e-01 3.9823251962661743e-01</leafValues></_>
        <_>
          <internalNodes>
            0 -1 128 -33571169 -1611223044 15872228 -707677662 -34095153
            136429308 1056660699 -269749509</internalNodes>
          <leafValues>
            -3.1599205732345581e-01 5.4793280363082886e-01</leafValues></_>
        <_>
          <internalNodes>
            0 -1 123 -549790532 -785850768 -1350705153 -538485615
            -1112909825 1241366015 -406946312 -1610639557</internalNodes>
          <leafValues>
            -3.7609961628913879e-01 4.5669335126876831e-01</leafValues></_>
        <_>
          <internalNodes>
            0 -1 120 -1294547762 291233947 -1609930567 865227413
            -500039613 -607418328 454990305 -1447532324</internalNodes>
          <leafValues>
            -5.5345010757446289e-01 3.1709077954292297e-01</leafValues></_></weakClassifiers></_>
    <!-- stage 15 -->
    <_>
      <maxWeakCount>11</maxWeakCount>
      <stageThreshold>-8.1187313795089722e-01</stageThreshold>
      <weakClassifiers>
        <_>
          <internalNodes>
            0 -1 131 -746629564 -336691474 -486612768 -219154454
            -673189945 1196359159 1174336756 1943011255</internalNodes>
          <leafValues>
            -3.1802526116371155e-01 5.2803945541381836e-01</leafValues></_>
        <_>
          <internalNodes>
            0 -1 6 -604023317 -882186968 -286265568 -366939616
            -555757857 -685770902 -959980338 -859308209</internalNodes>
          <leafValues>
            -3.7207391858100891e-01 4.3755197525024414e-01</leafValues></_>
        <_>
          <internalNodes>
            0 -1 132 -731085638 -48582254 -805281511 -73747519
            -900795713 -85996630 -1034968839 -1431577428</internalNodes>
          <leafValues>
            -4.3574377894401550e-01 3.4800195693969727e-01</leafValues></_>
        <_>
          <internalNodes>
            0 -1 106 -67450308 1719401251 -1207959770 1005975543
            1596644360 -9502938 -65652 -206367286</internalNodes>
          <leafValues>
            -3.6936938762664795e-01 4.1015553474426270e-01</leafValues></_>
        <_>
          <internalNodes>
            0 -1 96 523566052 963741332 16810992 -1251529808 -1977580928
            -5472097 -79115128 -1082963958</internalNodes>
          <leafValues>
            -4.5790281891822815e-01 3.3683866262435913e-01</leafValues></_>
        <_>
          <internalNodes>
            0 -1 50 -1674125569 -48464034 2147335205 303692921 -17335012
            2138404686 -169935412 -646382433</internalNodes>
          <leafValues>
            -3.7374255061149597e-01 4.3030229210853577e-01</leafValues></_>
        <_>
          <internalNodes>
            0 -1 43 -1235889665 1263173773 1631750179 615468477
            -1338408849 1178247571 893916015 1212094557</internalNodes>
          <leafValues>
            -5.8337199687957764e-01 2.6752060651779175e-01</leafValues></_>
        <_>
          <internalNodes>
            0 -1 78 -599142261 -794085120 1695779211 25805105
            -1845438321 489607672 -106772278 -1076103425</internalNodes>
          <leafValues>
            -4.0516680479049683e-01 3.8498371839523315e-01</leafValues></_>
        <_>
          <internalNodes>
            0 -1 145 1058796427 -1500983136 1107376160 705316000
            1094959493 17178755 1413706661 -1064175183</internalNodes>
          <leafValues>
            -5.2811211347579956e-01 3.1382575631141663e-01</leafValues></_>
        <_>
          <internalNodes>
            0 -1 143 -214214833 -874255514 1878486631 1968414444
            1336141324 -1882259626 394223947 -715922055</internalNodes>
          <leafValues>
            -3.7887400388717651e-01 4.1225621104240417e-01</leafValues></_>
        <_>
          <internalNodes>
            0 -1 33 1079513599 -804945867 419502370 -379215808
            -2004574479 -923162443 25497072 1526559713</internalNodes>
          <leafValues>
            -6.2771326303482056e-01 2.5905567407608032e-01</leafValues></_></weakClassifiers></_>
    <!-- stage 16 -->
    <_>
      <maxWeakCount>10</maxWeakCount>
      <stageThreshold>-6.9019925594329834e-01</stageThreshold>
      <weakClassifiers>
        <_>
          <internalNodes>
            0 -1 14 -671255557 -273776642 2004876063 71791650 -453150721
            1095696252 1931961215 1198862611</internalNodes>
          <leafValues>
            -3.2330825924873352e-01 5.2762246131896973e-01</leafValues></_>
        <_>
          <internalNodes>
            0 -1 75 320472983 2140487756 35525719 -14307363 -255194945
            -869234524 -52384649 1471452228</internalNodes>
          <leafValues>
            -6.4156693220138550e-01 2.6260754466056824e-01</leafValues></_>
        <_>
          <internalNodes>
            0 -1 52 366107743 1998192763 1363918937 2115074245
            -1156913068 -892382949 -539308340 -80151815</internalNodes>
          <leafValues>
            -4.3755778670310974e-01 3.6647704243659973e-01</leafValues></_>
        <_>
          <internalNodes>
            0 -1 139 -643058693 -1348281976 2059366369 -544866856
            -1074421761 -1413513473 -33860331 -857761487</internalNodes>
          <leafValues>
            -3.7407112121582031e-01 4.1043937206268311e-01</leafValues></_>
        <_>
          <internalNodes>
            0 -1 11 -252460229 1824744843 -1004879870 1620664903
            -1002045400 -352436051 -1341103546 -692686258</internalNodes>
          <leafValues>
            -4.0937933325767517e-01 3.6068099737167358e-01</leafValues></_>
        <_>
          <internalNodes>
            0 -1 137 -179709604 -126028954 1780105298 -1770072759
            -1027154430 1246229123 85639123 1570692607</internalNodes>
          <leafValues>
            -5.3209269046783447e-01 2.5869366526603699e-01</leafValues></_>
        <_>
          <internalNodes>
            0 -1 112 -1183253187 -1686032223 184731103 -805467443
            -1714666567 -1850824309 -352056594 -1748598434</internalNodes>
          <leafValues>
            -3.7471082806587219e-01 4.0496313571929932e-01</leafValues></_>
        <_>
          <internalNodes>
            0 -1 79 1485379835 -805235712 1157765515 8476625 -1164393989
            1001126584 -603942709 732690891</internalNodes>
          <leafValues>
            -5.3975164890289307e-01 2.8069525957107544e-01</leafValues></_>
        <_>
          <internalNodes>
            0 -1 28 822582202 2110229790 1361150416 823609787 -917771544
            205949248 -783312677 1398505695</internalNodes>
          <leafValues>
            -5.0396686792373657e-01 2.9716193675994873e-01</leafValues></_>
        <_>
          <internalNodes>
            0 -1 37 1943523805 -273117002 -2092215843 660405533
            -104930757 -914120661 1883260239 477499672</internalNodes>
          <leafValues>
            -5.4025101661682129e-01 2.9907041788101196e-01</leafValues></_></weakClassifiers></_>
    <!-- stage 17 -->
    <_>
      <maxWeakCount>10</maxWeakCount>
      <stageThreshold>-6.5806043148040771e-01</stageThreshold>
      <weakClassifiers>
        <_>
          <internalNodes>
            0 -1 108 -142704649 551822708 2147479542 540045180
            1239881204 1156931573 1576420576 1060896762</internalNodes>
          <leafValues>
            -3.3022171258926392e-01 5.2741861343383789e-01</leafValues></_>
        <_>
          <internalNodes>
            0 -1 7 -7217201 -1010630073 -463696352 -464853982 -926955825
            1951858735 -207109822 -942681145</internalNodes>
          <leafValues>
            -3.8490363955497742e-01 3.8101837038993835e-01</leafValues></_>
        <_>
          <internalNodes>
            0 -1 121 -464220498 213160171 -1055504022 645685181
            -1996370003 -1463178470 -302795784 -1929710596</internalNodes>
          <leafValues>
            -5.9430015087127686e-01 2.4295929074287415e-01</leafValues></_>
        <_>
          <internalNodes>
            0 -1 104 303747669 -1090225136 1565610366 360432861
            -1306994757 1536876547 -6383299 259678708</internalNodes>
          <leafValues>
            -4.9028119444847107e-01 2.8865182399749756e-01</leafValues></_>
        <_>
          <internalNodes>
            0 -1 149 -5242901 -135286865 -18420190 -123488503 -16784561
            -740821251 -1527257310 -174588509</internalNodes>
          <leafValues>
            -3.5969799757003784e-01 4.0118327736854553e-01</leafValues></_>
        <_>
          <internalNodes>
            0 -1 92 -836336677 759641007 -1794400812 843993996
            1694712796 1124149309 -376704940 -699482405</internalNodes>
          <leafValues>
            -4.5867109298706055e-01 3.0579492449760437e-01</leafValues></_>
        <_>
          <internalNodes>
            0 -1 62 341794587 825488147 808777181 1964111263 -1727026661
            -888463341 1220614251 1212478335</internalNodes>
          <leafValues>
            -4.7689053416252136e-01 3.1753778457641602e-01</leafValues></_>
        <_>
          <internalNodes>
            0 -1 116 53387300 -2076122372 -1857963677 -38464808
            -2069642444 -2130694583 -1836066822 -1080629894</internalNodes>
          <leafValues>
            -4.3266171216964722e-01 3.3216449618339539e-01</leafValues></_>
        <_>
          <internalNodes>
            0 -1 103 -564284201 1404172308 1124225054 -1112520162
            2019630016 1890598441 268828808 1773870842</internalNodes>
          <leafValues>
            -5.1638048887252808e-01 2.9027345776557922e-01</leafValues></_>
        <_>
          <internalNodes>
            0 -1 25 490306555 119548218 -2096949131 1682284756
            1078283247 -1356561278 1105474589 1461041732</internalNodes>
          <leafValues>
            -5.3591316938400269e-01 2.8117278218269348e-01</leafValues></_></weakClassifiers></_>
    <!-- stage 18 -->
    <_>
      <maxWeakCount>10</maxWeakCount>
      <stageThreshold>-1.2491010427474976e+00</stageThreshold>
      <weakClassifiers>
        <_>
          <internalNodes>
            0 -1 54 2144957813 1059667901 -16908291 798825981 -778244
            -269058049 2146727932 -1358923884</internalNodes>
          <leafValues>
            -3.3415690064430237e-01 5.1102381944656372e-01</leafValues></_>
        <_>
          <internalNodes>
            0 -1 53 824781089 -1224242429 201337868 1023748363
            -217400385 -1187374791 -1667192677 -726427633</internalNodes>
          <leafValues>
            -4.6163469552993774e-01 3.2713687419891357e-01</leafValues></_>
        <_>
          <internalNodes>
            0 -1 86 -201436868 -36142972 -2138521129 949961553
            -1156835116 527146192 -1944527181 1857508114</internalNodes>
          <leafValues>
            -4.6155101060867310e-01 3.0761566758155823e-01</leafValues></_>
        <_>
          <internalNodes>
            0 -1 73 -2146758257 406073893 131335 -855596992 312776876
            -390561335 -1412912708 -303722801</internalNodes>
          <leafValues>
            -3.9377489686012268e-01 3.7235778570175171e-01</leafValues></_>
        <_>
          <internalNodes>
            0 -1 40 858852286 1593282894 95502784 2005075659 -808730406
            1325402240 489663208 1606912955</internalNodes>
          <leafValues>
            -4.8373195528984070e-01 2.7850914001464844e-01</leafValues></_>
        <_>
          <internalNodes>
            0 -1 57 596505072 1896927233 1531272987 1362182475 229306288
            -1840731208 433633416 996778520</internalNodes>
          <leafValues>
            -4.6573418378829956e-01 3.0027142167091370e-01</leafValues></_>
        <_>
          <internalNodes>
            0 -1 97 362791738 -502357632 1074139435 -755703403
            -1870616546 1809051553 264300407 937902193</internalNodes>
          <leafValues>
            -5.5745625495910645e-01 2.4112638831138611e-01</leafValues></_>
        <_>
          <internalNodes>
            0 -1 67 -603636487 1343942712 20972760 10623117 2065426140
            -1162280999 2035237067 1035679223</internalNodes>
          <leafValues>
            -5.4503881931304932e-01 2.9294645786285400e-01</leafValues></_>
        <_>
          <internalNodes>
            0 -1 1 1035173640 956901728 -1873720997 -205041536
            1943250398 -1324740429 -2127619382 -89130041</internalNodes>
          <leafValues>
            -3.8358172774314880e-01 3.8626486063003540e-01</leafValues></_>
        <_>
          <internalNodes>
            0 -1 99 715817392 -1906430866 -1877991343 -16250586
            -1375163768 -335540992 135172280 -1678588958</internalNodes>
          <leafValues>
            -4.0643030405044556e-01 3.6598390340805054e-01</leafValues></_></weakClassifiers></_>
    <!-- stage 19 -->
    <_>
      <maxWeakCount>11</maxWeakCount>
      <stageThreshold>-9.9171155691146851e-01</stageThreshold>
      <weakClassifiers>
        <_>
          <internalNodes>
            0 -1 49 408606591 2099674458 -2003514279 338787440
            -1349572268 1162741871 -395049932 1026621285</internalNodes>
          <leafValues>
            -4.9610388278961182e-01 4.7036668658256531e-01</leafValues></_>
        <_>
          <internalNodes>
            0 -1 110 -49 -576716979 -840175890 -42209682 -33558529
            500460772 1610289130 -268992581</internalNodes>
          <leafValues>
            -2.7554801106452942e-01 4.6299916505813599e-01</leafValues></_>
        <_>
          <internalNodes>
            0 -1 129 -1616192004 -1652500460 1163089311 -577031888
            -1353370631 -1715838333 976161477 211746928</internalNodes>
          <leafValues>
            -4.8430839180946350e-01 2.8432020545005798e-01</leafValues></_>
        <_>
          <internalNodes>
            0 -1 55 37946703 -754318569 304093184 -575601644 788532138
            145787688 -1114829157 -670726909</internalNodes>
          <leafValues>
            -4.5040223002433777e-01 3.1180745363235474e-01</leafValues></_>
        <_>
          <internalNodes>
            0 -1 95 1901019231 454101004 -1059045105 528553649 526652604
            1000639140 -391373144 -270057678</internalNodes>
          <leafValues>
            -4.0488058328628540e-01 3.4442067146301270e-01</leafValues></_>
        <_>
          <internalNodes>
            0 -1 113 112089439 -1548025467 1080443292 -289453619
            -1525955376 -1565932927 -1580679808 -1078285447</internalNodes>
          <leafValues>
            -4.4422766566276550e-01 3.2173445820808411e-01</leafValues></_>
        <_>
          <internalNodes>
            0 -1 8 1372823887 1565073691 1406178882 1458569391
            -1063759798 -1450596066 -693648378 -680037533</internalNodes>
          <leafValues>
            -4.3802782893180847e-01 3.3711549639701843e-01</leafValues></_>
        <_>
          <internalNodes>
            0 -1 70 -1037479792 -871665664 -683519959 1094824773
            508743391 -1104959029 -276752256 1241236175</internalNodes>
          <leafValues>
            -4.6560320258140564e-01 2.8696441650390625e-01</leafValues></_>
        <_>
          <internalNodes>
            0 -1 41 1003042559 50398031 -1852243473 1377370915
            1000022991 1101236121 286974399 1394606335</internalNodes>
          <leafValues>
            -5.0999158620834351e-01 2.7891057729721069e-01</leafValues></_>
        <_>
          <internalNodes>
            0 -1 88 991609224 400511127 -216608424 1893384522 31486949
            1933672990 -1316320004 -1104101078</internalNodes>
          <leafValues>
            -4.4682011008262634e-01 3.4062743186950684e-01</leafValues></_>
        <_>
          <internalNodes>
            0 -1 80 842705855 -1080969888 -2077216485 420611480
            -1253707312 17428873 1109016733 422448465</internalNodes>
          <leafValues>
            -6.1045563220977783e-01 2.4659740924835205e-01</leafValues></_></weakClassifiers></_></stages>
  <features>
    <_>
      <rect>
        0 6 8 8</rect></_>
    <_>
      <rect>
        0 8 3 14</rect></_>
    <_>
      <rect>
        0 13 3 12</rect></_>
    <_>
      <rect>
        0 13 5 4</rect></_>
    <_>
      <rect>
        0 15 5 5</rect></_>
    <_>
      <rect>
        0 24 2 4</rect></_>
    <_>
      <rect>
        0 25 2 3</rect></_>
    <_>
      <rect>
        0 29 2 2</rect></_>
    <_>
      <rect>
        0 29 3 3</rect></_>
    <_>
      <rect>
        1 20 4 2</rect></_>
    <_>
      <rect>
        1 25 9 3</rect></_>
    <_>
      <rect>
        1 29 2 5</rect></_>
    <_>
      <rect>
        1 30 5 9</rect></_>
    <_>
      <rect>
        2 17 8 7</rect></_>
    <_>
      <rect>
        2 23 1 1</rect></_>
    <_>
      <rect>
        2 24 1 1</rect></_>
    <_>
      <rect>
        2 24 3 3</rect></_>
    <_>
      <rect>
        2 25 5 9</rect></_>
    <_>
      <rect>
        2 26 4 10</rect></_>
    <_>
      <rect>
        3 2 9 15</rect></_>
    <_>
      <rect>
        3 13 9 9</rect></_>
    <_>
      <rect>
        3 20 8 5</rect></_>
    <_>
      <rect>
        3 21 1 1</rect></_>
    <_>
      <rect>
        3 21 1 2</rect></_>
    <_>
      <rect>
        3 22 8 6</rect></_>
    <_>
      <rect>
        3 23 1 2</rect></_>
    <_>
      <rect>
        3 25 1 1</rect></_>
    <_>
      <rect>
        3 26 1 2</rect></_>
    <_>
      <rect>
        4 10 5 6</rect></_>
    <_>
      <rect>
        4 20 2 4</rect></_>
    <_>
      <rect>
        4 20 3 3</rect></_>
    <_>
      <rect>
        4 22 4 3</rect></_>
    <_>
      <rect>
        4 23 1 1</rect></_>
    <_>
      <rect>
        4 23 4 4</rect></_>
    <_>
      <rect>
        4 36 3 4</rect></_>
    <_>
      <rect>
        5 15 3 2</rect></_>
    <_>
      <rect>
        5 15 4 3</rect></_>
    <_>
      <rect>
        5 17 1 1</rect></_>
    <_>
      <rect>
        5 20 1 1</rect></_>
    <_>
      <rect>
        5 21 1 1</rect></_>
    <_>
      <rect>
        6 6 5 8</rect></_>
    <_>
      <rect>
        6 13 1 3</rect></_>
    <_>
      <rect>
        6 18 1 1</rect></_>
    <_>
      <rect>
        6 18 2 1</rect></_>
    <_>
      <rect>
        6 18 7 6</rect></_>
    <_>
      <rect>
        7 9 5 10</rect></_>
    <_>
      <rect>
        7 12 3 5</rect></_>
    <_>
      <rect>
        7 13 1 2</rect></_>
    <_>
      <rect>
        7 16 1 1</rect></_>
    <_>
      <rect>
        7 17 2 3</rect></_>
    <_>
      <rect>
        8 12 2 4</rect></_>
    <_>
      <rect>
        8 14 1 1</rect></_>
    <_>
      <rect>
        8 14 2 4</rect></_>
    <_>
      <rect>
        8 16 7 6</rect></_>
    <_>
      <rect>
        8 19 1 3</rect></_>
    <_>
      <rect>
        8 20 5 4</rect></_>
    <_>
      <rect>
        8 22 7 7</rect></_>
    <_>
      <rect>
        8 30 3 2</rect></_>
    <_>
      <rect>
        8 30 4 3</rect></_>
    <_>
      <rect>
        9 4 5 12</rect></_>
    <_>
      <rect>
        9 13 2 5</rect></_>
    <_>
      <rect>
        9 13 4 5</rect></_>
    <_>
      <rect>
        9 15 1 2</rect></_>
    <_>
      <rect>
        9 17 3 5</rect></_>
    <_>
      <rect>
        9 19 2 3</rect></_>
    <_>
      <rect>
        9 21 2 4</rect></_>
    <_>
      <rect>
        9 21 3 3</rect></_>
    <_>
      <rect>
        9 27 4 6</rect></_>
    <_>
      <rect>
        9 28 3 4</rect></_>
    <_>
      <rect>
        9 30 5 5</rect></_>
    <_>
      <rect>
        9 34 5 5</rect></_>
    <_>
      <rect>
        10 14 3 3</rect></_>
    <_>
      <rect>
        10 16 1 1</rect></_>
    <_>
      <rect>
        10 18 2 6</rect></_>
    <_>
      <rect>
        10 22 3 3</rect></_>
    <_>
      <rect>
        10 25 3 3</rect></_>
    <_>
      <rect>
        10 26 4 3</rect></_>
    <_>
      <rect>
        10 28 4 5</rect></_>
    <_>
      <rect>
        10 29 5 5</rect></_>
    <_>
      <rect>
        10 29 5 6</rect></_>
    <_>
      <rect>
        10 30 3 3</rect></_>
    <_>
      <rect>
        10 30 5 5</rect></_>
    <_>
      <rect>
        10 32 4 5</rect></_>
    <_>
      <rect>
        11 7 6 9</rect></_>
    <_>
      <rect>
        11 10 3 6</rect></_>
    <_>
      <rect>
        11 16 2 4</rect></_>
    <_>
      <rect>
        11 26 2 2</rect></_>
    <_>
      <rect>
        11 27 1 1</rect></_>
    <_>
      <rect>
        11 28 1 1</rect></_>
    <_>
      <rect>
        11 29 1 1</rect></_>
    <_>
      <rect>
        11 32 3 3</rect></_>
    <_>
      <rect>
        12 7 2 4</rect></_>
    <_>
      <rect>
        12 10 2 5</rect></_>
    <_>
      <rect>
        12 12 3 4</rect></_>
    <_>
      <rect>
        12 15 3 3</rect></_>
    <_>
      <rect>
        12 22 2 3</rect></_>
    <_>
      <rect>
        12 25 1 2</rect></_>
    <_>
      <rect>
        12 26 2 3</rect></_>
    <_>
      <rect>
        12 29 1 1</rect></_>
    <_>
      <rect>
        12 34 1 1</rect></_>
    <_>
      <rect>
        13 14 3 3</rect></_>
    <_>
      <rect>
        13 17 3 5</rect></_>
    <_>
      <rect>
        13 18 2 3</rect></_>
    <_>
      <rect>
        13 20 2 3</rect></_>
    <_>
      <rect>
        13 27 3 3</rect></_>
    <_>
      <rect>
        13 28 1 1</rect></_>
    <_>
      <rect>
        13 29 1 1</rect></_>
    <_>
      <rect>
        14 13 3 5</rect></_>
    <_>
      <rect>
        14 15 2 5</rect></_>
    <_>
      <rect>
        14 19 2 3</rect></_>
    <_>
      <rect>
        14 19 3 4</rect></_>
    <_>
      <rect>
        14 21 2 3</rect></_>
    <_>
      <rect>
        14 27 1 2</rect></_>
    <_>
      <rect>
        14 28 1 1</rect></_>
    <_>
      <rect>
        14 29 1 1</rect></_>
    <_>
      <rect>
        14 29 2 2</rect></_>
    <_>
      <rect>
        14 31 1 1</rect></_>
    <_>
      <rect>
        15 19 3 4</rect></_>
    <_>
      <rect>
        15 21 2 3</rect></_>
    <_>
      <rect>
        15 21 3 4</rect></_>
    <_>
      <rect>
        15 28 1 1</rect></_>
    <_>
      <rect>
        15 29 1 1</rect></_>
    <_>
      <rect>
        15 30 2 3</rect></_>
    <_>
      <rect>
        15 30 2 4</rect></_>
    <_>
      <rect>
        16 10 3 5</rect></_>
    <_>
      <rect>
        16 16 3 5</rect></_>
    <_>
      <rect>
        16 19 2 4</rect></_>
    <_>
      <rect>
        16 20 2 4</rect></_>
    <_>
      <rect>
        16 22 3 3</rect></_>
    <_>
      <rect>
        16 33 2 5</rect></_>
    <_>
      <rect>
        17 3 4 11</rect></_>
    <_>
      <rect>
        17 13 3 4</rect></_>
    <_>
      <rect>
        17 25 1 4</rect></_>
    <_>
      <rect>
        17 30 4 3</rect></_>
    <_>
      <rect>
        18 16 4 5</rect></_>
    <_>
      <rect>
        19 14 3 7</rect></_>
    <_>
      <rect>
        19 19 3 4</rect></_>
    <_>
      <rect>
        20 16 3 7</rect></_>
    <_>
      <rect>
        20 19 3 2</rect></_>
    <_>
      <rect>
        20 33 2 5</rect></_>
    <_>
      <rect>
        21 21 3 3</rect></_>
    <_>
      <rect>
        21 24 3 3</rect></_>
    <_>
      <rect>
        22 32 2 2</rect></_>
    <_>
      <rect>
        23 13 2 4</rect></_>
    <_>
      <rect>
        23 29 2 2</rect></_>
    <_>
      <rect>
        23 32 2 4</rect></_>
    <_>
      <rect>
        23 34 2 1</rect></_>
    <_>
      <rect>
        24 20 2 7</rect></_>
    <_>
      <rect>
        24 25 2 3</rect></_>
    <_>
      <rect>
        24 32 2 2</rect></_></features></cascade>
</opencv_storage>
